<?xml version="1.0"?>
<opencv_storage>
<cascade>
  <stageType>BOOST</stageType>
  <featureType>HAAR</featureType>
  <height>20</height>
  <width>20</width>
  <stageParams>
    <boostType>GAB</boostType>
    <minHitRate>9.9900001287460327e-01</minHitRate>
    <maxFalseAlarm>5.0000000745058060e-02</maxFalseAlarm>
    <weightTrimRate>9.4999999999999996e-01</weightTrimRate>
    <maxDepth>1</maxDepth>
    <maxWeakCount>100</maxWeakCount></stageParams>
  <featureParams>
    <maxCatCount>0</maxCatCount>
    <featSize>1</featSize>
    <mode>ALL</mode></featureParams>
  <stageNum>3</stageNum>
  <stages>
    <!-- stage 0 -->
    <_>
      <maxWeakCount>1</maxWeakCount>
      <stageThreshold>1.</stageThreshold>
      <weakClassifiers>
        <_>
          <internalNodes>
            0 -1 4 2.2623799741268158e-01</internalNodes>
          <leafValues>
            -1. 1.</leafValues></_></weakClassifiers></_>
    <!-- stage 1 -->
    <_>
      <maxWeakCount>3</maxWeakCount>
      <stageThreshold>6.9642609357833862e-01</stageThreshold>
      <weakClassifiers>
        <_>
          <internalNodes>
            0 -1 0 -9.0965270996093750e-02</internalNodes>
          <leafValues>
            9.4466406106948853e-01 -9.6761131286621094e-01</leafValues></_>
        <_>
          <internalNodes>
            0 -1 1 -1.5627995133399963e-01</internalNodes>
          <leafValues>
            8.5900318622589111e-01 -9.8491889238357544e-01</leafValues></_>
        <_>
          <internalNodes>
            0 -1 3 -2.0058877766132355e-02</internalNodes>
          <leafValues>
            8.0503422021865845e-01 -9.8431628942489624e-01</leafValues></_></weakClassifiers></_>
    <!-- stage 2 -->
    <_>
      <maxWeakCount>4</maxWeakCount>
      <stageThreshold>-2.6016697287559509e-01</stageThreshold>
      <weakClassifiers>
        <_>
          <internalNodes>
            0 -1 6 3.0810928344726562e-01</internalNodes>
          <leafValues>
            -9.6226418018341064e-01 8.7762904167175293e-01</leafValues></_>
        <_>
          <internalNodes>
            0 -1 7 -1.5739801526069641e-01</internalNodes>
          <leafValues>
            8.2503962516784668e-01 -9.5831787586212158e-01</leafValues></_>
        <_>
          <internalNodes>
            0 -1 5 -1.1546333553269506e-04</internalNodes>
          <leafValues>
            -9.7793281078338623e-01 6.9744318723678589e-01</leafValues></_>
        <_>
          <internalNodes>
            0 -1 2 -5.9482315555214882e-03</internalNodes>
          <leafValues>
            8.5499036312103271e-01 -7.6315408945083618e-01</leafValues></_></weakClassifiers></_></stages>
  <features>
    <_>
      <rects>
        <_>
          0 2 20 6 -1.</_>
        <_>
          5 2 10 6 2.</_></rects>
      <tilted>0</tilted></_>
    <_>
      <rects>
        <_>
          1 1 18 18 -1.</_>
        <_>
          7 1 6 18 3.</_></rects>
      <tilted>0</tilted></_>
    <_>
      <rects>
        <_>
          1 13 2 3 -1.</_>
        <_>
          2 13 1 3 2.</_></rects>
      <tilted>0</tilted></_>
    <_>
      <rects>
        <_>
          1 15 10 3 -1.</_>
        <_>
          6 15 5 3 2.</_></rects>
      <tilted>0</tilted></_>
    <_>
      <rects>
        <_>
          3 6 11 9 -1.</_>
        <_>
          3 9 11 3 3.</_></rects>
      <tilted>0</tilted></_>
    <_>
      <rects>
        <_>
          4 5 12 2 -1.</_>
        <_>
          8 5 4 2 3.</_></rects>
      <tilted>0</tilted></_>
    <_>
      <rects>
        <_>
          4 5 12 9 -1.</_>
        <_>
          4 8 12 3 3.</_></rects>
      <tilted>0</tilted></_>
    <_>
      <rects>
        <_>
          5 9 10 6 -1.</_>
        <_>
          5 12 10 3 2.</_></rects>
      <tilted>0</tilted></_></features></cascade>
</opencv_storage>
